solver_type L2R_L2LOSS_SVC_DUAL
nr_class 2
label 48 49
nr_feature 1047
bias -1
w
1.48775222614761 
0.5765361333954384 
1.915956977905377 
1.076887525799236 
-0.1293373244303117 
1.497417222508504 
0.3162857449814861 
1.111638506836903 
3.422207025737985 
-1.417385111689622 
-0.9519437391887354 
1.811547483751872 
-0.8087258082092663 
0.6714227974258636 
1.270415330079979 
-1.955328371805072 
0.05640365411097503 
3.484994806651374 
0.8824183678705091 
0.1394136848917445 
0.5127139401691868 
1.613263342052841 
0.8172793932183221 
-0.07785224168876403 
2.27913746713805 
-0.5493999393908677 
1.442177343902553 
1.945550092879287 
-0.7421673225341272 
1.176202607981273 
2.167975375641855 
0.2496427494550318 
0.1802106194104397 
-0.1153613332790303 
-0.1520934297131843 
0.09958206652900997 
0.3019089183364101 
-0.5361855781563052 
-0.475751374662179 
-0.2988138496112605 
0.9026063622040223 
-0.1376825865444577 
-0.7775787912921681 
0.1409588265575372 
-0.3426588555704116 
0.02556833867113372 
-0.05220165776697847 
0.07427632912876715 
1.4498023431039 
0.2094149510743892 
0.127358758278509 
-0.8243532970312721 
1.105893021591254 
1.031396996654097 
-0.2771639315330343 
-0.6961291840632963 
3.354476904460331 
0.5516123237082476 
0.8212075438063713 
2.016600441694398 
0.07611030553066915 
1.265063121513654 
2.292856153921178 
-2.454455154101181 
-0.5798215791140845 
-0.2857566592018863 
0.02623262142563719 
1.777608352934066 
-1.518300061925607 
-2.995260837536841 
-0.2574840413682772 
-0.6860330738064583 
-1.634695413428366 
-0.00814822786130036 
-0.4450706488354718 
-1.33258168486496 
0.004430465870983488 
-1.081684611211598 
-2.260273797415531 
0.1452943007533974 
1.778797723361535 
1.140475888749254 
-0.7200241643102738 
0.939992577829217 
1.207923351218618 
0.08664201969510034 
1.90418164740296 
-0.9802374355718906 
2.633729176700985 
1.175479633496044 
-3.014209988310306 
-0.06896188366665612 
2.600540851600723 
-1.543150113632187 
0.6776267034374488 
0.6583545609664943 
-2.527819008128055 
0.5971144218171182 
3.783905670556237 
1.845124610841111 
1.141582465917496 
0.979001546684681 
1.979494832919734 
0.8093041995529409 
0.3017243498393605 
1.887296952283383 
2.085992046726346 
1.589901981872439 
1.257512686047244 
0.06499356424110939 
1.279918338889726 
1.679763614753816 
0.452426922238342 
0.8538117456375259 
-0.3484111419611346 
-0.091280920162361 
1.756263069374968 
0.364955645317505 
0.6678893341726095 
0.561927412564507 
0.2616112114201414 
-0.152297798347719 
-0.3341381808235092 
-0.5819685481587908 
1.005885851965252 
1.268929286891157 
0.2330569270947091 
0.69435303584258 
0.9120718091755858 
1.312433372529139 
0.4170741390332065 
-0.06791973633931113 
-0.4234229610278609 
0.8308483182420537 
1.3551979724445 
-0.8166529585433746 
0.165683680270552 
5.369321349532204 
-0.009009356315653163 
0.6546374984801518 
2.462212711347888 
-1.638455515574429 
3.710191861109933 
3.519103946537649 
-0.9873091348305258 
-1.073738111219168 
-0.4357343964663562 
1.010633912296236 
0.7494265518195505 
-1.528315431938577 
-3.770196630271324 
0.5838133496862432 
-0.8573145449037173 
-1.960801447616894 
-0.3992329861192761 
-0.6333276240462308 
-3.146999410558553 
-0.008273337340039089 
-0.8549287477685458 
-3.024393425092093 
-0.5810328041577669 
0.7050253430288366 
1.35649982635508 
2.622094832760641 
0.7086682217215824 
0.8018985201989789 
0.7351882644831279 
2.70885015725706 
1.153153013532997 
1.486531241995235 
-5.076345172437182 
0.7099643488659378 
-0.2911060212511636 
-3.234152625641158 
0.8815167522834053 
-1.561890937904584 
-2.621363245903268 
1.64248209588689 
0.6394949354245442 
-3.462366323565692 
-2.794912039804478 
-1.702733959785442 
-1.892574579383834 
-2.326657000082734 
-2.007569167639855 
-1.225929289780319 
-3.450416603863586 
-1.618422249108767 
-3.015090156830664 
-2.483631612109246 
-0.3392214835697769 
-0.6322468564382154 
-1.971758982194242 
-0.3601506921816836 
0.1514211066206336 
-0.4204187473772919 
0.1203910021821994 
1.076432557893859 
-0.6569196645598839 
0.2205867887819663 
-1.232171590058588 
0.2013225141419254 
1.462227192284677 
-0.09519054203833568 
-0.1657858948022091 
-1.590574047700735 
-0.5678483662122138 
-0.08185857785519648 
0.254856638943623 
-3.424684204793123 
-1.787422771313119 
-0.2570247366689246 
-1.261008818113362 
0.1820004778892612 
0.6656802744463881 
-3.03818505844998 
1.695571206391345 
0.3714430042770837 
-1.257177396992114 
1.188060213706094 
0.1730318745333093 
-1.311132979309865 
0.996306253367077 
-3.124971025461019 
-1.271010345785259 
1.029452029583304 
-0.3105307995644188 
0.7630859914756001 
-1.015151815806567 
-1.582160435022937 
1.069982478066723 
2.474996514871934 
-0.8345669218186237 
1.629298083531473 
1.423230220471936 
0.4170363740070276 
0.0908201679737195 
1.858207152249739 
-1.136835653667195 
0.2116120305316594 
2.731506221319448 
1.698069022544949 
0.1357926864130508 
-1.393976075077405 
1.011608085650956 
-0.8594875166901499 
0.429033008449723 
2.552943951047638 
-0.7090239401349221 
1.077632547887952 
-2.264208369893228 
-1.041878340594222 
-0.6084538240635313 
-2.128946269276747 
-0.9491304225570197 
0.3450277159174052 
-0.7076840718387889 
0.8321663272675968 
-0.9097388646223101 
-1.328650155390009 
0.1159616457915973 
-0.03047653748930186 
-1.376277559584207 
-0.4544057545500392 
-1.123397257607932 
-7.668317188432729 
-0.08363351420525331 
3.699158748823929 
5.062445861520822 
-5.567032895063137 
2.122341194487307 
3.07736908313794 
-2.509129058560521 
-0.6780408750686798 
3.676607400497627 
-1.169001186023844 
-1.4522598390579 
-2.680372949847373 
0.08397937672937165 
5.089794716184642 
4.373187859665661 
3.164172220793057 
0.6384374354272275 
3.783044845707349 
2.81155841008592 
1.947595251509541 
3.018983389771273 
3.287301745290408 
0.9921831548679484 
1.389722622149153 
1.416816967675702 
1.291315664425115 
0.5573974743164785 
0.7149114569688865 
0.7841487149084212 
0.9771043433860367 
0.3928891840073501 
0.9014361789503399 
1.114549014503847 
0.2766538002579826 
0.1019296449770627 
0.3711446400116074 
0.07215842681209192 
0.2814734985630683 
0.05287053635815117 
0.5141348713292144 
0.1326424338399051 
0.236874300855897 
0.4535979623009743 
0.335927336571724 
-0.04299337670648177 
0.1034894101591183 
0.1466062555441718 
-0.04930009363641495 
0.08700677168652948 
0.08341863903384365 
0.04310348412673328 
-0.04610072845400291 
0.05950466191263009 
0.4202590889321431 
0.1409791077760633 
0.4270258111576409 
-0.006130207682055728 
0.2413987799536071 
0.1873406670050203 
0.2175830022493228 
0.1384627063358344 
0.1422368083548103 
0.5353305911541787 
-0.1229033266543879 
0.2038192034217118 
0.1441937329495608 
0.2629062381678666 
0.04277660274723896 
0.310493560522441 
0.1757504821445429 
0.1769900487037846 
-0.04101669591391355 
0.3659295900125387 
-0.2264730207741012 
0.2910024207271334 
0.485535483376477 
-0.1163601031682588 
-0.06418093469996984 
0.07897888943668961 
0.3160129494073167 
-0.1421393162284235 
0.1546186487501271 
0.123908860016474 
0.2347276634823383 
-0.21184866272801 
-0.3477609098445286 
-0.1078357451449029 
0.2596790162052201 
-0.2248186045132001 
0.06471782706493735 
0.2344807034866832 
0.1554924535946841 
-0.07010343244334147 
0.2915485454720112 
0.2625044554537527 
0.2208958596546597 
-0.08274323610565108 
-0.4473540103460623 
0.3951415748803876 
-0.3304879356642639 
-0.00267941659357751 
0.107885082117431 
0.02080326346117529 
-0.2433252694062894 
0.481108964011179 
-0.1564048336537781 
-0.1801842196243606 
0.3807346570792142 
0.2637064494580883 
-0.1472858596227303 
-0.147875157633646 
0.4661467890128694 
-0.1026955394298246 
0.1476001992627319 
-0.3105599554588921 
0.2454811896939283 
0.1382970953706555 
0.2853206763448705 
0.007805221309187925 
-0.07477775701242914 
0.4920891051301971 
-0.4328701367065265 
-0.4143667562042314 
-0.1836516631538175 
-0.1973347415313784 
-0.2968323693307662 
-0.01021453871992276 
0.3261628501098732 
0.03427581461493669 
-0.3054799897637881 
-0.1164587649515402 
-0.06495696991513293 
-0.07963762491387896 
-0.3458008309110469 
0.5193623009500333 
0.328603250317104 
-0.3846983011603279 
0.06393821303448695 
-0.1568757488224392 
0.4009677926881701 
0.1624099543469434 
-0.3306233871784725 
-0.2663608145825337 
-0.1558393647662156 
0.1915405722188017 
-0.2818568148404095 
-0.2332890792499878 
0.2323208908230132 
-0.09134971255430879 
-0.2636321595859533 
0.4254113143566075 
-0.15325535258503 
-0.4995929971088801 
0.1928505272633181 
-0.5682208581917517 
-0.4585117443939415 
0.391566578166925 
0.2700764287257587 
-0.2448705369317818 
0.2489692646579238 
0.05317389675690678 
0.2159579027987145 
-0.2192465428597011 
-0.8070078551094287 
-0.7554468007724112 
0.2789356932103517 
-0.3383914615210371 
-0.2536425633757011 
0.06101730494182167 
-0.2412730120990308 
-0.05239374914308968 
0.3527384670043694 
-0.5814503957867395 
-0.2811766652741557 
0.2287378537480598 
-0.09803960177531397 
0.2710926321580294 
-0.07746445400568988 
0.2110354958342283 
0.5430920117266307 
0.1518833183897643 
-0.7850702983637222 
-0.273186874257201 
0.4500756147541524 
-0.05038951536536009 
-0.7478027385263577 
-0.2384136749887925 
-0.2874711144425284 
0.4010501287616515 
0.4840930518738459 
-0.2502693880423142 
-0.9828996877276331 
0.1678895802004026 
0.007244692375366779 
0.1158044323446292 
-0.9516812112155122 
-0.3045676369804554 
0.5210217211805283 
0.2579494336932615 
-0.09830934973654717 
-0.03638880332943815 
-1.4344212209611 
-0.2686783140367121 
0.7478023101307963 
0.3831763191859594 
-1.416938373903473 
-0.4773475471213917 
1.075838790267349 
0.6598418839281746 
0.2218074086713222 
0.5321767567247105 
-1.476163281450826 
-0.6063762186216487 
0.7551199529206793 
0.7075107783990898 
-1.438787849590482 
-0.719426307944427 
0.7169045544710441 
0.415199073928971 
1.495976360288246 
0.5375156585314395 
-2.758686059965457 
-1.098335065272433 
1.118674514912661 
0.3703154968259413 
-1.507070018258356 
-1.473970318252618 
0.1833132752978829 
1.376019223913977 
0.6063412186964565 
0.5710673620628202 
-2.019827171387969 
0.05165356583176685 
1.019026156537213 
0.6505342230312415 
-2.798314579965114 
-1.752383809894404 
1.207839815471633 
1.239397904673579 
1.700360256198847 
0.145807026064291 
-2.780299957312018 
-0.5478005574564001 
1.42345692590663 
0.7918908195031031 
-3.065933004043228 
-0.8495862737567124 
1.138129444273173 
0.8019252420164247 
1.39130505284834 
-0.0508766193476072 
-2.696973759257769 
-0.7006286405378239 
0.9226296484146583 
0.1674039647296391 
-0.8425671215642342 
-1.176870464335917 
1.885471698931899 
-0.2243411194807906 
1.370909361989209 
-0.06356069379510335 
-1.927529125144302 
-0.6710628026149515 
0.5560261478833501 
-0.2508202091895355 
0.2412881887429042 
-1.154077928649604 
-1.179707762073883 
0.1236054272527632 
-4.408476261521394 
2.3232716478014 
-11.59438888145218 
-2.648080921797815 
-5.089654569790768 
-4.987787866009113 
-5.294199109481527 
-4.438712588227956 
-4.890541148452936 
-3.961819279570355 
-2.985329185105577 
-2.585870896180164 
-2.713547541146607 
-1.345270175806503 
-1.362202087656674 
-1.694726285716469 
-1.285339007675085 
-1.033514656594837 
-1.411648230700205 
-1.405515897997521 
-0.9851239158684074 
-1.318869008408544 
-1.148066816355038 
-0.9189169276000763 
-0.9480958139729913 
-0.1245236816967883 
-0.4381994356277129 
-0.4160371659346464 
-1.002681992628716 
-0.9173752523149366 
-0.789494232702569 
-0.777761325357898 
-1.14912948627811 
-0.4702553883238831 
-0.6650728057731073 
-0.7406166142116728 
-0.5472811319562834 
-0.7676516379598801 
-0.9737767880351866 
-0.3078811568660199 
-0.4804042534021471 
-0.4486788635097987 
-0.6102059406197334 
-0.5430943988362562 
-0.2177748472546326 
-0.7275333099832019 
-0.4361314525688335 
-0.5443293122827648 
-0.3257772240482763 
-0.5503672052389471 
-0.3481917663248777 
-0.3802276532579575 
-0.6337821374580332 
-0.3455871833422066 
-0.7251983173552349 
-0.08794918674321477 
-0.2802201761345262 
-0.318306704846058 
-0.6579066558651567 
-0.3913273054159684 
-0.1702896967531324 
-0.2170244086701642 
-0.3703049973883379 
-0.5410798359926983 
-0.1841948027047095 
-0.3823530447057232 
-0.5006113382605107 
-0.438975340981443 
0.1611322829972754 
-0.1520414653740632 
-0.2335066493149421 
-0.09054171242738102 
-0.108674860467036 
-0.3598389341513919 
-0.7573846891966017 
0.2088880399396836 
-0.00118803972637245 
-0.2744828878313459 
-0.2300527524700855 
-0.1047230527539211 
0.1085145374229222 
-0.3704150185095509 
-0.2951755539363803 
-0.05883273062008191 
-0.3971395020074965 
-0.06540237322710039 
0.2621518311806116 
-0.4716822325377353 
0.1816121162785046 
0.06538952081233132 
-0.1872798769999245 
-0.006794071207857555 
-0.0895432823929436 
0.2057039878752422 
-0.3284972170367111 
-0.305443563202087 
-0.1570234991784742 
0.1255816851486062 
0.05697040744589555 
-0.1202765820295252 
0.02677911085454917 
-0.006536337651863733 
0.09058090774640058 
-0.1390441507102066 
-0.2198792633842381 
0.09432846087905777 
-0.3270647595438179 
0.02814547411942067 
-0.1507798090087829 
0.3791791034370929 
0.1310917744951235 
-0.2367309640768724 
0.1966885388059526 
0.3862542023030038 
-0.1021967723690044 
0.2613443080987644 
-0.2704166816163879 
-0.08158244374351718 
0.1140165360399214 
0.4089795136523607 
-0.2387563521354439 
-0.2127068694500289 
-0.1567390264635699 
-0.02415569600149363 
0.5162369259855819 
0.3983499416389145 
-0.1534325029809236 
0.2758100780874757 
0.3604688883111625 
0.3251427156509079 
-0.5558534886952142 
-0.05057208521116985 
0.0834679081864905 
-0.1340512989712178 
0.211127404816596 
0.5070005868469062 
0.1657206751601537 
-0.3538106905841205 
-0.6025889465442568 
0.5359284935221121 
0.2729490566067959 
0.06362446981875589 
-0.07887595919127592 
0.5278525713886321 
0.058432175255642 
0.3416971998021124 
-0.08473032480386018 
0.4117120115502182 
-0.2159498262943867 
0.4711531440762699 
0.416302188482409 
-0.1295547569249015 
-0.003886313194077934 
-0.2476759700544771 
0.1111331406322561 
-0.3447546241293217 
0.659746547666714 
0.3997817433039105 
-0.02975897845978996 
-0.007412604106738134 
-0.1408652195070071 
0.385270189390508 
0.6669269669702738 
0.04069951005385891 
-0.3039094769992217 
-0.02171154011692177 
0.1309644389738872 
0.1628077035518556 
1.015386258426442 
-0.1258707323370966 
-0.6152696769569131 
0.8781002381118548 
-0.7386702240002537 
-0.2287970379571963 
0.01367748870706371 
0.6040515328455073 
0.2147717599680735 
-0.09364321818638593 
0.4116101393005403 
0.3265462160086762 
0.1847889612661801 
0.03333119269784648 
0.6363859682491614 
0.283331035062085 
0.5294334809267324 
0.4094776362747722 
0.3799518401591913 
0.1940674633772368 
0.2556008014368645 
0.7204971258362737 
-0.7140736016649576 
-0.1754953403948874 
-0.04584379949796816 
0.2299863557573538 
0.2320486044582635 
-0.9715118005720195 
0.4126910097033736 
-0.3857522464947564 
0.1335306517161977 
-0.05029740492869759 
0.3481826148094738 
0.1947967875840225 
0.813596391262453 
0.5229265372278602 
0.5594263423681706 
0.3726858772802208 
-0.8221679290280706 
0.3554608834085885 
0.2306836964829779 
0.4706733332931873 
0.505139239447691 
-0.9858679085506237 
0.7143360939082255 
-0.01682641134556331 
0.1758813723207768 
0.3381532522778406 
-0.5984097505979321 
-0.003478175845321782 
1.031636020126909 
-0.01230745598318531 
0.1635580471519888 
-0.2036811704466407 
0.376963421047625 
0.6714305964230514 
0.6408055650021037 
0.2427960840846457 
-0.08123180382154697 
-0.3804863606627686 
-0.0941851508316662 
0.2144444757115992 
0.1281538982468005 
0.3022134428796343 
0.6480224091589918 
-0.3279498457110423 
-0.574745210987081 
0.1803165101741963 
0.1632522751800433 
0.1004102145831733 
0.3260110718639364 
0.2758274578079898 
0.01133821416144285 
-0.1968443920401758 
0.387658431146324 
0.112092221336729 
0.1484357178053782 
0.1548925966963641 
-0.09947207543921285 
-0.4110019431239596 
-0.3278853778149193 
-0.03387311630992197 
0.8737133583947371 
1.084261796102648 
0.1463612531055676 
-1.901708229552539 
0.7455823637435678 
-0.5230074840558172 
-14.67758934481154 
18.05866524402741 
4.239320261362883 
1.819652501386984 
3.923375482805664 
3.387415106106154 
2.806902375280683 
2.428585727657893 
2.727090291032035 
3.111864879107411 
2.170451080453876 
2.045343369298336 
1.803397908458175 
1.620015450762212 
1.415707416918259 
1.371018305689877 
1.054477980475581 
1.340459688034673 
1.026521779316 
0.7804445073493859 
1.450280704229725 
0.961157168800159 
1.283657134745976 
0.8208269036678613 
1.120528673478534 
0.8858324857635237 
1.403025320718589 
1.0708729838585 
0.2181216262610919 
0.8458612183667262 
0.8491108418702722 
1.218336427632657 
0.487044218167537 
0.4347304839081366 
1.058356626274404 
1.445911441005633 
0.6668039957854821 
0.397545026698624 
0.02022812951462942 
0.9857940820174331 
0.5021136983404412 
0.6306419614790892 
0.6186380440945938 
0.4851890446167008 
0.4862716752241346 
0.3634593393578907 
0.5735762420027586 
0.3937599573580313 
0.3062445750657617 
0.2615603791602936 
0.5456490429599881 
0.6301245013665701 
0.2916761186448978 
0.1608907144624073 
0.01082317108702479 
0.4592439903169455 
0.6298082307712823 
0.3664346338899656 
0.1823604986425674 
0.3008177504058013 
0.1945607212078575 
0.1603137468018547 
0.009528216444616412 
0.2586361008194941 
0.7873675243223056 
0.332765504109315 
0.3681588616726362 
0.1578099951940982 
0.1984187164588724 
-0.06164359029905399 
0.476650703590392 
0.09150170049759834 
0.3759861222729836 
0.4681322629037025 
0.2176425771392897 
-0.146141387348065 
0.2138164928081916 
0.295573622722811 
-0.08875451468586372 
0.06788868469492378 
0.4795092834310782 
-0.04805431957123031 
-0.03271406660386659 
-0.07415375886346984 
0.2425356247206881 
0.1617475575567779 
0.2010375760139422 
-0.1037930413902902 
0.5744481085872547 
0.3066405472704481 
-0.06822079296896714 
-0.2185226116249405 
0.05935968440313037 
0.05155523320557492 
0.3730119556634371 
0.3154105477902315 
0.1107404567431 
0.02139465005626695 
0.1226243692043771 
0.02954840490016148 
-0.2457678847978237 
-0.0802180252880389 
-0.3047280246598336 
0.6992129280111827 
0.161418790428615 
0.1761095519254461 
-0.3443139928466989 
0.2430762141455972 
-0.2245798282113768 
0.2368130003899883 
0.2326956531046451 
0.1421795632725864 
0.03579674504686007 
-0.1796378697751058 
-0.2025535249234192 
-0.2323730401696753 
0.143651357465655 
-0.08109583474174381 
-0.0329585503147912 
0.1709458756383113 
0.2190135315951156 
-0.3338872758942873 
0.03958951698040205 
-0.1246107016361471 
0.1308355118454878 
0.1465664155002451 
-0.3234917695685989 
0.5848538820763671 
-0.3365987581453848 
-0.2985499713796035 
-0.06132290278593938 
0.4553636581826062 
0.3625437395916237 
-0.2714495799823484 
-0.1318387986037524 
0.1342025898411019 
-0.3424484473326156 
-0.2338180640869034 
0.004642460551805043 
0.9730554408746215 
0.2564683205477326 
-0.331521487839458 
-0.1556244767461331 
-0.1131612328041327 
-0.5608410499342739 
-0.1830068400976738 
0.2129374622694366 
0.006784376398222664 
0.2945532783458829 
-0.5078056505506067 
-0.0470130453708509 
-0.2608453543602624 
0.4528230723488864 
0.1035403020789552 
0.2688886687117729 
-0.2950873249130094 
-0.4727755386753574 
-0.09204039920647394 
-0.1730269495159521 
-0.3528336441687179 
-0.2718288504975411 
0.3052974126804891 
0.5035610240654054 
0.3301669953186075 
0.103741198667964 
-0.3427670703648974 
-0.7540891604038178 
0.1845172970831037 
0.4765581387437389 
-0.02951660011776867 
0.3148479166279612 
-0.175487782796598 
0.088266589108 
0.01753999587025009 
-0.3309769268462445 
-0.8181545955101697 
-0.3767516476221814 
0.2042973614470013 
0.4052234199411665 
-0.2815897713513349 
-0.2489719027685807 
-0.4140431119200049 
0.2373247145085948 
-0.1123593031622527 
-0.3828528744644865 
0.08234901519614725 
-0.5524949372964557 
-0.4329763760115613 
0.1411744124535345 
0.2859950984943568 
0.5522456658400918 
-0.222873800889788 
0.07182421391854828 
-0.1062152885958326 
-0.4005601875836942 
-0.006499401553998685 
0.4329910392718442 
-0.02346564648468975 
-0.8184996461943538 
-0.6038951729275714 
0.7973736137841618 
-0.4991613622473872 
-0.4189436289768984 
-0.01594107797929296 
0.5290718447031566 
-0.03363895036894657 
-0.04261359070638286 
-0.5948649093712951 
0.08478696632570029 
-0.06869495341514836 
-0.3664901290501248 
-0.173678949577957 
0.4834076816998881 
0.4891160233940398 
0.1387237907498604 
0.2480342508756485 
1.100231610879235 
-1.25446088931868 
-0.2882201657588299 
-0.4845033173690904 
0.5005978380304353 
-0.2052253267849144 
-0.4042678969637976 
1.047901381147623 
-0.2886370120462499 
0.9225697524875051 
-1.088815893249928 
-0.5378277754762052 
-0.3767970027853568 
-0.5124043197586293 
-0.3404099006276948 
0.4603534121906241 
-0.4782319249871202 
0.4543325295783885 
-0.3778009101427188 
-0.05852059230378883 
0.0221403710493557 
0.5098409700185077 
-1.198030032778018 
0.9376157022599616 
-0.09824049044016021 
0.01292731272643648 
0.2272040854601731 
1.09171814904034 
0.4152382670181153 
0.6633964894067743 
1.945485050673074 
-0.1533328090999788 
0.2554293550034743 
-1.520638993027734 
-0.3913881242114202 
-1.214899056513751 
-2.35594277712207 
-0.4824709363057171 
3.325131218726911 
1.815710173874864 
